digraph Tree {
node [shape=box] ;
0 [label="X[1307] <= 0.0042\ngini = 0.3485\nsamples = 1439\nvalue = [[1202, 1069]\n[1124, 1147]\n[2216, 55]]"] ;
1 [label="X[2792] <= 0.0116\ngini = 0.349\nsamples = 1419\nvalue = [[1171, 1067]\n[1122, 1116]\n[2183, 55]]"] ;
0 -> 1 [labeldistance=2.5, labelangle=45, headlabel="True"] ;
2 [label="X[3469] <= 0.0048\ngini = 0.3435\nsamples = 1398\nvalue = [[1148, 1060]\n[1095, 1113]\n[2173, 35]]"] ;
1 -> 2 ;
3 [label="X[2731] <= 0.0094\ngini = 0.3434\nsamples = 1337\nvalue = [[1125, 991]\n[1026, 1090]\n[2081, 35]]"] ;
2 -> 3 ;
4 [label="X[1180] <= 0.0019\ngini = 0.3433\nsamples = 974\nvalue = [[763, 778]\n[802, 739]\n[1517, 24]]"] ;
3 -> 4 ;
5 [label="X[299] <= 0.0101\ngini = 0.3446\nsamples = 710\nvalue = [[598, 519]\n[540, 577]\n[1096, 21]]"] ;
4 -> 5 ;
6 [label="X[3346] <= 0.0094\ngini = 0.3437\nsamples = 695\nvalue = [[597, 489]\n[510, 576]\n[1065, 21]]"] ;
5 -> 6 ;
7 [label="X[2505] <= 0.0016\ngini = 0.3421\nsamples = 666\nvalue = [[588, 449]\n[470, 567]\n[1016, 21]]"] ;
6 -> 7 ;
8 [label="X[3824] <= 0.0081\ngini = 0.3325\nsamples = 459\nvalue = [[438, 270]\n[286, 422]\n[692, 16]]"] ;
7 -> 8 ;
9 [label="X[4564] <= 0.007\ngini = 0.3292\nsamples = 449\nvalue = [[436, 255]\n[271, 420]\n[675, 16]]"] ;
8 -> 9 ;
10 [label="X[4900] <= 0.0017\ngini = 0.3616\nsamples = 225\nvalue = [[187, 155]\n[171, 171]\n[326, 16]]"] ;
9 -> 10 ;
11 [label="X[2276] <= 0.04\ngini = 0.3497\nsamples = 201\nvalue = [[176, 131]\n[141, 166]\n[297, 10]]"] ;
10 -> 11 ;
12 [label="X[4564] <= 0.0005\ngini = 0.326\nsamples = 26\nvalue = [[14, 27]\n[30, 11]\n[38, 3]]"] ;
11 -> 12 ;
13 [label="X[2432] <= 0.0436\ngini = 0.3108\nsamples = 25\nvalue = [[13, 27]\n[29, 11]\n[38, 2]]"] ;
12 -> 13 ;
14 [label="X[3162] <= 0.0019\ngini = 0.2351\nsamples = 23\nvalue = [[8, 27]\n[27, 8]\n[35, 0]]"] ;
13 -> 14 ;
15 [label="X[3576] <= 0.0262\ngini = 0.1758\nsamples = 22\nvalue = [[5, 27]\n[27, 5]\n[32, 0]]"] ;
14 -> 15 ;
16 [label="X[258] <= 0.0094\ngini = 0.1498\nsamples = 21\nvalue = [[4, 27]\n[27, 4]\n[31, 0]]"] ;
15 -> 16 ;
17 [label="X[193] <= 0.1982\ngini = 0.25\nsamples = 12\nvalue = [[4, 12]\n[12, 4]\n[16, 0]]"] ;
16 -> 17 ;
18 [label="X[3809] <= 0.0653\ngini = 0.2133\nsamples = 11\nvalue = [[3, 12]\n[12, 3]\n[15, 0]]"] ;
17 -> 18 ;
19 [label="X[3925] <= 0.0394\ngini = 0.0947\nsamples = 10\nvalue = [[1, 12]\n[12, 1]\n[13, 0]]"] ;
18 -> 19 ;
20 [label="gini = 0.0\nsamples = 9\nvalue = [[0, 12]\n[12, 0]\n[12, 0]]"] ;
19 -> 20 ;
21 [label="gini = 0.0\nsamples = 1\nvalue = [[1, 0]\n[0, 1]\n[1, 0]]"] ;
19 -> 21 ;
22 [label="gini = 0.0\nsamples = 1\nvalue = [[2, 0]\n[0, 2]\n[2, 0]]"] ;
18 -> 22 ;
23 [label="gini = 0.0\nsamples = 1\nvalue = [[1, 0]\n[0, 1]\n[1, 0]]"] ;
17 -> 23 ;
24 [label="gini = 0.0\nsamples = 9\nvalue = [[0, 15]\n[15, 0]\n[15, 0]]"] ;
16 -> 24 ;
25 [label="gini = 0.0\nsamples = 1\nvalue = [[1, 0]\n[0, 1]\n[1, 0]]"] ;
15 -> 25 ;
26 [label="gini = 0.0\nsamples = 1\nvalue = [[3, 0]\n[0, 3]\n[3, 0]]"] ;
14 -> 26 ;
27 [label="X[368] <= 0.0183\ngini = 0.32\nsamples = 2\nvalue = [[5, 0]\n[2, 3]\n[3, 2]]"] ;
13 -> 27 ;
28 [label="gini = 0.0\nsamples = 1\nvalue = [[2, 0]\n[2, 0]\n[0, 2]]"] ;
27 -> 28 ;
29 [label="gini = 0.0\nsamples = 1\nvalue = [[3, 0]\n[0, 3]\n[3, 0]]"] ;
27 -> 29 ;
30 [label="gini = 0.0\nsamples = 1\nvalue = [[1, 0]\n[1, 0]\n[0, 1]]"] ;
12 -> 30 ;
31 [label="X[3284] <= 0.0025\ngini = 0.3379\nsamples = 175\nvalue = [[162, 104]\n[111, 155]\n[259, 7]]"] ;
11 -> 31 ;
32 [label="X[1212] <= 0.0045\ngini = 0.1993\nsamples = 57\nvalue = [[67, 15]\n[15, 67]\n[82, 0]]"] ;
31 -> 32 ;
33 [label="X[2943] <= 0.0027\ngini = 0.1408\nsamples = 52\nvalue = [[66, 9]\n[9, 66]\n[75, 0]]"] ;
32 -> 33 ;
34 [label="X[3816] <= 0.0085\ngini = 0.0873\nsamples = 48\nvalue = [[66, 5]\n[5, 66]\n[71, 0]]"] ;
33 -> 34 ;
35 [label="X[3701] <= 0.0104\ngini = 0.0555\nsamples = 46\nvalue = [[66, 3]\n[3, 66]\n[69, 0]]"] ;
34 -> 35 ;
36 [label="gini = 0.0\nsamples = 43\nvalue = [[66, 0]\n[0, 66]\n[66, 0]]"] ;
35 -> 36 ;
37 [label="gini = 0.0\nsamples = 3\nvalue = [[0, 3]\n[3, 0]\n[3, 0]]"] ;
35 -> 37 ;
38 [label="gini = 0.0\nsamples = 2\nvalue = [[0, 2]\n[2, 0]\n[2, 0]]"] ;
34 -> 38 ;
39 [label="gini = 0.0\nsamples = 4\nvalue = [[0, 4]\n[4, 0]\n[4, 0]]"] ;
33 -> 39 ;
40 [label="X[3524] <= 0.0064\ngini = 0.1633\nsamples = 5\nvalue = [[1, 6]\n[6, 1]\n[7, 0]]"] ;
32 -> 40 ;
41 [label="gini = 0.0\nsamples = 4\nvalue = [[0, 6]\n[6, 0]\n[6, 0]]"] ;
40 -> 41 ;
42 [label="gini = 0.0\nsamples = 1\nvalue = [[1, 0]\n[0, 1]\n[1, 0]]"] ;
40 -> 42 ;
43 [label="X[3889] <= 0.0014\ngini = 0.3572\nsamples = 118\nvalue = [[95, 89]\n[96, 88]\n[177, 7]]"] ;
31 -> 43 ;
44 [label="X[1805] <= 0.0016\ngini = 0.3552\nsamples = 94\nvalue = [[89, 60]\n[67, 82]\n[142, 7]]"] ;
43 -> 44 ;
45 [label="X[2229] <= 0.1518\ngini = 0.3508\nsamples = 89\nvalue = [[88, 53]\n[60, 81]\n[134, 7]]"] ;
44 -> 45 ;
46 [label="X[631] <= 0.0745\ngini = 0.3425\nsamples = 88\nvalue = [[86, 53]\n[58, 81]\n[134, 5]]"] ;
45 -> 46 ;
47 [label="X[294] <= 0.1448\ngini = 0.3268\nsamples = 82\nvalue = [[84, 44]\n[48, 80]\n[124, 4]]"] ;
46 -> 47 ;
48 [label="X[4461] <= 0.1893\ngini = 0.3082\nsamples = 79\nvalue = [[82, 40]\n[42, 80]\n[120, 2]]"] ;
47 -> 48 ;
49 [label="X[2614] <= 0.0916\ngini = 0.2951\nsamples = 76\nvalue = [[82, 35]\n[37, 80]\n[115, 2]]"] ;
48 -> 49 ;
50 [label="X[3099] <= 0.3289\ngini = 0.3313\nsamples = 54\nvalue = [[52, 31]\n[33, 50]\n[81, 2]]"] ;
49 -> 50 ;
51 [label="X[1783] <= 0.0052\ngini = 0.2616\nsamples = 32\nvalue = [[38, 10]\n[12, 36]\n[46, 2]]"] ;
50 -> 51 ;
52 [label="X[985] <= 0.0759\ngini = 0.2066\nsamples = 30\nvalue = [[38, 6]\n[8, 36]\n[42, 2]]"] ;
51 -> 52 ;
53 [label="X[3010] <= 0.0447\ngini = 0.1597\nsamples = 23\nvalue = [[33, 4]\n[5, 32]\n[36, 1]]"] ;
52 -> 53 ;
54 [label="X[583] <= 0.0247\ngini = 0.0416\nsamples = 18\nvalue = [[30, 1]\n[1, 30]\n[31, 0]]"] ;
53 -> 54 ;
55 [label="gini = 0.0\nsamples = 16\nvalue = [[28, 0]\n[0, 28]\n[28, 0]]"] ;
54 -> 55 ;
56 [label="X[985] <= 0.0214\ngini = 0.2963\nsamples = 2\nvalue = [[2, 1]\n[1, 2]\n[3, 0]]"] ;
54 -> 56 ;
57 [label="gini = 0.0\nsamples = 1\nvalue = [[0, 1]\n[1, 0]\n[1, 0]]"] ;
56 -> 57 ;
58 [label="gini = 0.0\nsamples = 1\nvalue = [[2, 0]\n[0, 2]\n[2, 0]]"] ;
56 -> 58 ;
59 [label="X[1364] <= 0.0275\ngini = 0.4074\nsamples = 5\nvalue = [[3, 3]\n[4, 2]\n[5, 1]]"] ;
53 -> 59 ;
60 [label="X[4945] <= 0.0122\ngini = 0.3733\nsamples = 4\nvalue = [[2, 3]\n[4, 1]\n[4, 1]]"] ;
59 -> 60 ;
61 [label="X[2535] <= 0.0816\ngini = 0.3333\nsamples = 2\nvalue = [[2, 0]\n[1, 1]\n[1, 1]]"] ;
60 -> 61 ;
62 [label="gini = 0.0\nsamples = 1\nvalue = [[1, 0]\n[1, 0]\n[0, 1]]"] ;
61 -> 62 ;
63 [label="gini = 0.0\nsamples = 1\nvalue = [[1, 0]\n[0, 1]\n[1, 0]]"] ;
61 -> 63 ;
64 [label="gini = 0.0\nsamples = 2\nvalue = [[0, 3]\n[3, 0]\n[3, 0]]"] ;
60 -> 64 ;
65 [label="gini = 0.0\nsamples = 1\nvalue = [[1, 0]\n[0, 1]\n[1, 0]]"] ;
59 -> 65 ;
66 [label="X[4461] <= 0.1125\ngini = 0.381\nsamples = 7\nvalue = [[5, 2]\n[3, 4]\n[6, 1]]"] ;
52 -> 66 ;
67 [label="X[192] <= 0.0987\ngini = 0.4167\nsamples = 4\nvalue = [[2, 2]\n[3, 1]\n[3, 1]]"] ;
66 -> 67 ;
68 [label="gini = 0.0\nsamples = 1\nvalue = [[1, 0]\n[1, 0]\n[0, 1]]"] ;
67 -> 68 ;
69 [label="X[3156] <= 0.0695\ngini = 0.2963\nsamples = 3\nvalue = [[1, 2]\n[2, 1]\n[3, 0]]"] ;
67 -> 69 ;
70 [label="gini = 0.0\nsamples = 1\nvalue = [[0, 1]\n[1, 0]\n[1, 0]]"] ;
69 -> 70 ;
71 [label="X[3126] <= 0.0343\ngini = 0.3333\nsamples = 2\nvalue = [[1, 1]\n[1, 1]\n[2, 0]]"] ;
69 -> 71 ;
72 [label="gini = 0.0\nsamples = 1\nvalue = [[0, 1]\n[1, 0]\n[1, 0]]"] ;
71 -> 72 ;
73 [label="gini = 0.0\nsamples = 1\nvalue = [[1, 0]\n[0, 1]\n[1, 0]]"] ;
71 -> 73 ;
74 [label="gini = 0.0\nsamples = 3\nvalue = [[3, 0]\n[0, 3]\n[3, 0]]"] ;
66 -> 74 ;
75 [label="gini = 0.0\nsamples = 2\nvalue = [[0, 4]\n[4, 0]\n[4, 0]]"] ;
51 -> 75 ;
76 [label="X[4037] <= 0.0028\ngini = 0.32\nsamples = 22\nvalue = [[14, 21]\n[21, 14]\n[35, 0]]"] ;
50 -> 76 ;
77 [label="X[4307] <= 0.0141\ngini = 0.3008\nsamples = 19\nvalue = [[11, 21]\n[21, 11]\n[32, 0]]"] ;
76 -> 77 ;
78 [label="X[2073] <= 0.0134\ngini = 0.2914\nsamples = 18\nvalue = [[10, 21]\n[21, 10]\n[31, 0]]"] ;
77 -> 78 ;
79 [label="X[2076] <= 0.0346\ngini = 0.2663\nsamples = 17\nvalue = [[8, 21]\n[21, 8]\n[29, 0]]"] ;
78 -> 79 ;
80 [label="X[297] <= 0.0382\ngini = 0.25\nsamples = 16\nvalue = [[7, 21]\n[21, 7]\n[28, 0]]"] ;
79 -> 80 ;
81 [label="X[341] <= 0.0155\ngini = 0.2305\nsamples = 15\nvalue = [[6, 21]\n[21, 6]\n[27, 0]]"] ;
80 -> 81 ;
82 [label="X[4832] <= 0.1354\ngini = 0.2432\nsamples = 14\nvalue = [[6, 19]\n[19, 6]\n[25, 0]]"] ;
81 -> 82 ;
83 [label="X[1670] <= 0.0353\ngini = 0.2199\nsamples = 13\nvalue = [[5, 19]\n[19, 5]\n[24, 0]]"] ;
82 -> 83 ;
84 [label="X[1430] <= 0.0278\ngini = 0.3061\nsamples = 7\nvalue = [[5, 9]\n[9, 5]\n[14, 0]]"] ;
83 -> 84 ;
85 [label="X[325] <= 0.1541\ngini = 0.3306\nsamples = 6\nvalue = [[5, 6]\n[6, 5]\n[11, 0]]"] ;
84 -> 85 ;
86 [label="X[1206] <= 0.0242\ngini = 0.2721\nsamples = 5\nvalue = [[5, 2]\n[2, 5]\n[7, 0]]"] ;
85 -> 86 ;
87 [label="gini = 0.0\nsamples = 4\nvalue = [[5, 0]\n[0, 5]\n[5, 0]]"] ;
86 -> 87 ;
88 [label="gini = 0.0\nsamples = 1\nvalue = [[0, 2]\n[2, 0]\n[2, 0]]"] ;
86 -> 88 ;
89 [label="gini = 0.0\nsamples = 1\nvalue = [[0, 4]\n[4, 0]\n[4, 0]]"] ;
85 -> 89 ;
90 [label="gini = 0.0\nsamples = 1\nvalue = [[0, 3]\n[3, 0]\n[3, 0]]"] ;
84 -> 90 ;
91 [label="gini = 0.0\nsamples = 6\nvalue = [[0, 10]\n[10, 0]\n[10, 0]]"] ;
83 -> 91 ;
92 [label="gini = 0.0\nsamples = 1\nvalue = [[1, 0]\n[0, 1]\n[1, 0]]"] ;
82 -> 92 ;
93 [label="gini = 0.0\nsamples = 1\nvalue = [[0, 2]\n[2, 0]\n[2, 0]]"] ;
81 -> 93 ;
94 [label="gini = 0.0\nsamples = 1\nvalue = [[1, 0]\n[0, 1]\n[1, 0]]"] ;
80 -> 94 ;
95 [label="gini = 0.0\nsamples = 1\nvalue = [[1, 0]\n[0, 1]\n[1, 0]]"] ;
79 -> 95 ;
96 [label="gini = 0.0\nsamples = 1\nvalue = [[2, 0]\n[0, 2]\n[2, 0]]"] ;
78 -> 96 ;
97 [label="gini = 0.0\nsamples = 1\nvalue = [[1, 0]\n[0, 1]\n[1, 0]]"] ;
77 -> 97 ;
98 [label="gini = 0.0\nsamples = 3\nvalue = [[3, 0]\n[0, 3]\n[3, 0]]"] ;
76 -> 98 ;
99 [label="X[1643] <= 0.094\ngini = 0.1384\nsamples = 22\nvalue = [[30, 4]\n[4, 30]\n[34, 0]]"] ;
49 -> 99 ;
100 [label="X[3156] <= 0.0504\ngini = 0.1498\nsamples = 20\nvalue = [[27, 4]\n[4, 27]\n[31, 0]]"] ;
99 -> 100 ;
101 [label="X[241] <= 0.0236\ngini = 0.0856\nsamples = 18\nvalue = [[27, 2]\n[2, 27]\n[29, 0]]"] ;
100 -> 101 ;
102 [label="X[1461] <= 0.0178\ngini = 0.0459\nsamples = 17\nvalue = [[27, 1]\n[1, 27]\n[28, 0]]"] ;
101 -> 102 ;
103 [label="X[3740] <= 0.0478\ngini = 0.0532\nsamples = 15\nvalue = [[23, 1]\n[1, 23]\n[24, 0]]"] ;
102 -> 103 ;
104 [label="X[4007] <= 0.0846\ngini = 0.0665\nsamples = 13\nvalue = [[18, 1]\n[1, 18]\n[19, 0]]"] ;
103 -> 104 ;
105 [label="X[4932] <= 0.0979\ngini = 0.0884\nsamples = 10\nvalue = [[13, 1]\n[1, 13]\n[14, 0]]"] ;
104 -> 105 ;
106 [label="gini = 0.0\nsamples = 9\nvalue = [[13, 0]\n[0, 13]\n[13, 0]]"] ;
105 -> 106 ;
107 [label="gini = 0.0\nsamples = 1\nvalue = [[0, 1]\n[1, 0]\n[1, 0]]"] ;
105 -> 107 ;
108 [label="gini = 0.0\nsamples = 3\nvalue = [[5, 0]\n[0, 5]\n[5, 0]]"] ;
104 -> 108 ;
109 [label="gini = 0.0\nsamples = 2\nvalue = [[5, 0]\n[0, 5]\n[5, 0]]"] ;
103 -> 109 ;
110 [label="gini = 0.0\nsamples = 2\nvalue = [[4, 0]\n[0, 4]\n[4, 0]]"] ;
102 -> 110 ;
111 [label="gini = 0.0\nsamples = 1\nvalue = [[0, 1]\n[1, 0]\n[1, 0]]"] ;
101 -> 111 ;
112 [label="gini = 0.0\nsamples = 2\nvalue = [[0, 2]\n[2, 0]\n[2, 0]]"] ;
100 -> 112 ;
113 [label="gini = 0.0\nsamples = 2\nvalue = [[3, 0]\n[0, 3]\n[3, 0]]"] ;
99 -> 113 ;
114 [label="gini = 0.0\nsamples = 3\nvalue = [[0, 5]\n[5, 0]\n[5, 0]]"] ;
48 -> 114 ;
115 [label="X[3282] <= 0.2328\ngini = 0.2963\nsamples = 3\nvalue = [[2, 4]\n[6, 0]\n[4, 2]]"] ;
47 -> 115 ;
116 [label="gini = 0.0\nsamples = 2\nvalue = [[0, 4]\n[4, 0]\n[4, 0]]"] ;
115 -> 116 ;
117 [label="gini = 0.0\nsamples = 1\nvalue = [[2, 0]\n[2, 0]\n[0, 2]]"] ;
115 -> 117 ;
118 [label="X[226] <= 0.0116\ngini = 0.2094\nsamples = 6\nvalue = [[2, 9]\n[10, 1]\n[10, 1]]"] ;
46 -> 118 ;
119 [label="X[3323] <= 0.0275\ngini = 0.3333\nsamples = 4\nvalue = [[2, 4]\n[5, 1]\n[5, 1]]"] ;
118 -> 119 ;
120 [label="X[1773] <= 0.0379\ngini = 0.3333\nsamples = 2\nvalue = [[2, 0]\n[1, 1]\n[1, 1]]"] ;
119 -> 120 ;
121 [label="gini = 0.0\nsamples = 1\nvalue = [[1, 0]\n[1, 0]\n[0, 1]]"] ;
120 -> 121 ;
122 [label="gini = 0.0\nsamples = 1\nvalue = [[1, 0]\n[0, 1]\n[1, 0]]"] ;
120 -> 122 ;
123 [label="gini = 0.0\nsamples = 2\nvalue = [[0, 4]\n[4, 0]\n[4, 0]]"] ;
119 -> 123 ;
124 [label="gini = 0.0\nsamples = 2\nvalue = [[0, 5]\n[5, 0]\n[5, 0]]"] ;
118 -> 124 ;
125 [label="gini = 0.0\nsamples = 1\nvalue = [[2, 0]\n[2, 0]\n[0, 2]]"] ;
45 -> 125 ;
126 [label="X[153] <= 0.0045\ngini = 0.1458\nsamples = 5\nvalue = [[1, 7]\n[7, 1]\n[8, 0]]"] ;
44 -> 126 ;
127 [label="gini = 0.0\nsamples = 4\nvalue = [[0, 7]\n[7, 0]\n[7, 0]]"] ;
126 -> 127 ;
128 [label="gini = 0.0\nsamples = 1\nvalue = [[1, 0]\n[0, 1]\n[1, 0]]"] ;
126 -> 128 ;
129 [label="X[359] <= 0.0036\ngini = 0.1894\nsamples = 24\nvalue = [[6, 29]\n[29, 6]\n[35, 0]]"] ;
43 -> 129 ;
130 [label="X[1182] <= 0.0006\ngini = 0.043\nsamples = 20\nvalue = [[1, 29]\n[29, 1]\n[30, 0]]"] ;
129 -> 130 ;
131 [label="X[2512] <= 0.0493\ngini = 0.0947\nsamples = 9\nvalue = [[1, 12]\n[12, 1]\n[13, 0]]"] ;
130 -> 131 ;
132 [label="gini = 0.0\nsamples = 8\nvalue = [[0, 12]\n[12, 0]\n[12, 0]]"] ;
131 -> 132 ;
133 [label="gini = 0.0\nsamples = 1\nvalue = [[1, 0]\n[0, 1]\n[1, 0]]"] ;
131 -> 133 ;
134 [label="gini = 0.0\nsamples = 11\nvalue = [[0, 17]\n[17, 0]\n[17, 0]]"] ;
130 -> 134 ;
135 [label="gini = 0.0\nsamples = 4\nvalue = [[5, 0]\n[0, 5]\n[5, 0]]"] ;
129 -> 135 ;
136 [label="X[4561] <= 0.0385\ngini = 0.32\nsamples = 24\nvalue = [[11, 24]\n[30, 5]\n[29, 6]]"] ;
10 -> 136 ;
137 [label="X[583] <= 0.0214\ngini = 0.2207\nsamples = 19\nvalue = [[6, 24]\n[25, 5]\n[29, 1]]"] ;
136 -> 137 ;
138 [label="X[3576] <= 0.0224\ngini = 0.1684\nsamples = 17\nvalue = [[4, 24]\n[25, 3]\n[27, 1]]"] ;
137 -> 138 ;
139 [label="X[4090] <= 0.014\ngini = 0.0512\nsamples = 14\nvalue = [[1, 24]\n[24, 1]\n[25, 0]]"] ;
138 -> 139 ;
140 [label="gini = 0.0\nsamples = 13\nvalue = [[0, 24]\n[24, 0]\n[24, 0]]"] ;
139 -> 140 ;
141 [label="gini = 0.0\nsamples = 1\nvalue = [[1, 0]\n[0, 1]\n[1, 0]]"] ;
139 -> 141 ;
142 [label="X[2516] <= 0.0404\ngini = 0.2963\nsamples = 3\nvalue = [[3, 0]\n[1, 2]\n[2, 1]]"] ;
138 -> 142 ;
143 [label="gini = 0.0\nsamples = 2\nvalue = [[2, 0]\n[0, 2]\n[2, 0]]"] ;
142 -> 143 ;
144 [label="gini = 0.0\nsamples = 1\nvalue = [[1, 0]\n[1, 0]\n[0, 1]]"] ;
142 -> 144 ;
145 [label="gini = 0.0\nsamples = 2\nvalue = [[2, 0]\n[0, 2]\n[2, 0]]"] ;
137 -> 145 ;
146 [label="gini = 0.0\nsamples = 5\nvalue = [[5, 0]\n[5, 0]\n[0, 5]]"] ;
136 -> 146 ;
147 [label="X[1069] <= 0.0187\ngini = 0.2726\nsamples = 224\nvalue = [[249, 100]\n[100, 249]\n[349, 0]]"] ;
9 -> 147 ;
148 [label="X[4690] <= 0.001\ngini = 0.2605\nsamples = 216\nvalue = [[248, 90]\n[90, 248]\n[338, 0]]"] ;
147 -> 148 ;
149 [label="X[4289] <= 0.0021\ngini = 0.1935\nsamples = 134\nvalue = [[173, 37]\n[37, 173]\n[210, 0]]"] ;
148 -> 149 ;
150 [label="X[2275] <= 0.0106\ngini = 0.1725\nsamples = 128\nvalue = [[172, 31]\n[31, 172]\n[203, 0]]"] ;
149 -> 150 ;
151 [label="X[3094] <= 0.0091\ngini = 0.1564\nsamples = 125\nvalue = [[172, 27]\n[27, 172]\n[199, 0]]"] ;
150 -> 151 ;
152 [label="X[2382] <= 0.0107\ngini = 0.1433\nsamples = 123\nvalue = [[172, 24]\n[24, 172]\n[196, 0]]"] ;
151 -> 152 ;
153 [label="X[3226] <= 0.0035\ngini = 0.1293\nsamples = 121\nvalue = [[172, 21]\n[21, 172]\n[193, 0]]"] ;
152 -> 153 ;
154 [label="X[4800] <= 0.056\ngini = 0.1102\nsamples = 117\nvalue = [[170, 17]\n[17, 170]\n[187, 0]]"] ;
153 -> 154 ;
155 [label="X[4070] <= 0.0198\ngini = 0.0993\nsamples = 115\nvalue = [[170, 15]\n[15, 170]\n[185, 0]]"] ;
154 -> 155 ;
156 [label="X[3486] <= 0.0176\ngini = 0.088\nsamples = 114\nvalue = [[170, 13]\n[13, 170]\n[183, 0]]"] ;
155 -> 156 ;
157 [label="X[3725] <= 0.0272\ngini = 0.0761\nsamples = 113\nvalue = [[170, 11]\n[11, 170]\n[181, 0]]"] ;
156 -> 157 ;
158 [label="X[3698] <= 0.0105\ngini = 0.07\nsamples = 112\nvalue = [[170, 10]\n[10, 170]\n[180, 0]]"] ;
157 -> 158 ;
159 [label="X[1117] <= 0.0134\ngini = 0.0572\nsamples = 110\nvalue = [[170, 8]\n[8, 170]\n[178, 0]]"] ;
158 -> 159 ;
160 [label="X[2120] <= 0.015\ngini = 0.2963\nsamples = 3\nvalue = [[1, 2]\n[2, 1]\n[3, 0]]"] ;
159 -> 160 ;
161 [label="gini = 0.0\nsamples = 2\nvalue = [[0, 2]\n[2, 0]\n[2, 0]]"] ;
160 -> 161 ;
162 [label="gini = 0.0\nsamples = 1\nvalue = [[1, 0]\n[0, 1]\n[1, 0]]"] ;
160 -> 162 ;
163 [label="X[2450] <= 0.0024\ngini = 0.0441\nsamples = 107\nvalue = [[169, 6]\n[6, 169]\n[175, 0]]"] ;
159 -> 163 ;
164 [label="X[4657] <= 0.0144\ngini = 0.0372\nsamples = 106\nvalue = [[169, 5]\n[5, 169]\n[174, 0]]"] ;
163 -> 164 ;
165 [label="X[1772] <= 0.029\ngini = 0.0301\nsamples = 105\nvalue = [[169, 4]\n[4, 169]\n[173, 0]]"] ;
164 -> 165 ;
166 [label="X[4646] <= 0.08\ngini = 0.0229\nsamples = 104\nvalue = [[169, 3]\n[3, 169]\n[172, 0]]"] ;
165 -> 166 ;
167 [label="X[980] <= 0.0248\ngini = 0.0154\nsamples = 103\nvalue = [[169, 2]\n[2, 169]\n[171, 0]]"] ;
166 -> 167 ;
168 [label="X[215] <= 0.0064\ngini = 0.0078\nsamples = 102\nvalue = [[169, 1]\n[1, 169]\n[170, 0]]"] ;
167 -> 168 ;
169 [label="gini = 0.0\nsamples = 98\nvalue = [[166, 0]\n[0, 166]\n[166, 0]]"] ;
168 -> 169 ;
170 [label="X[3100] <= 0.0011\ngini = 0.25\nsamples = 4\nvalue = [[3, 1]\n[1, 3]\n[4, 0]]"] ;
168 -> 170 ;
171 [label="gini = 0.0\nsamples = 3\nvalue = [[3, 0]\n[0, 3]\n[3, 0]]"] ;
170 -> 171 ;
172 [label="gini = 0.0\nsamples = 1\nvalue = [[0, 1]\n[1, 0]\n[1, 0]]"] ;
170 -> 172 ;
173 [label="gini = 0.0\nsamples = 1\nvalue = [[0, 1]\n[1, 0]\n[1, 0]]"] ;
167 -> 173 ;
174 [label="gini = 0.0\nsamples = 1\nvalue = [[0, 1]\n[1, 0]\n[1, 0]]"] ;
166 -> 174 ;
175 [label="gini = 0.0\nsamples = 1\nvalue = [[0, 1]\n[1, 0]\n[1, 0]]"] ;
165 -> 175 ;
176 [label="gini = 0.0\nsamples = 1\nvalue = [[0, 1]\n[1, 0]\n[1, 0]]"] ;
164 -> 176 ;
177 [label="gini = 0.0\nsamples = 1\nvalue = [[0, 1]\n[1, 0]\n[1, 0]]"] ;
163 -> 177 ;
178 [label="gini = 0.0\nsamples = 2\nvalue = [[0, 2]\n[2, 0]\n[2, 0]]"] ;
158 -> 178 ;
179 [label="gini = 0.0\nsamples = 1\nvalue = [[0, 1]\n[1, 0]\n[1, 0]]"] ;
157 -> 179 ;
180 [label="gini = 0.0\nsamples = 1\nvalue = [[0, 2]\n[2, 0]\n[2, 0]]"] ;
156 -> 180 ;
181 [label="gini = 0.0\nsamples = 1\nvalue = [[0, 2]\n[2, 0]\n[2, 0]]"] ;
155 -> 181 ;
182 [label="gini = 0.0\nsamples = 2\nvalue = [[0, 2]\n[2, 0]\n[2, 0]]"] ;
154 -> 182 ;
183 [label="X[3410] <= 0.0054\ngini = 0.2963\nsamples = 4\nvalue = [[2, 4]\n[4, 2]\n[6, 0]]"] ;
153 -> 183 ;
184 [label="gini = 0.0\nsamples = 3\nvalue = [[0, 4]\n[4, 0]\n[4, 0]]"] ;
183 -> 184 ;
185 [label="gini = 0.0\nsamples = 1\nvalue = [[2, 0]\n[0, 2]\n[2, 0]]"] ;
183 -> 185 ;
186 [label="gini = 0.0\nsamples = 2\nvalue = [[0, 3]\n[3, 0]\n[3, 0]]"] ;
152 -> 186 ;
187 [label="gini = 0.0\nsamples = 2\nvalue = [[0, 3]\n[3, 0]\n[3, 0]]"] ;
151 -> 187 ;
188 [label="gini = 0.0\nsamples = 3\nvalue = [[0, 4]\n[4, 0]\n[4, 0]]"] ;
150 -> 188 ;
189 [label="X[4418] <= 0.004\ngini = 0.1633\nsamples = 6\nvalue = [[1, 6]\n[6, 1]\n[7, 0]]"] ;
149 -> 189 ;
190 [label="gini = 0.0\nsamples = 5\nvalue = [[0, 6]\n[6, 0]\n[6, 0]]"] ;
189 -> 190 ;
191 [label="gini = 0.0\nsamples = 1\nvalue = [[1, 0]\n[0, 1]\n[1, 0]]"] ;
189 -> 191 ;
192 [label="X[3921] <= 0.0028\ngini = 0.3235\nsamples = 82\nvalue = [[75, 53]\n[53, 75]\n[128, 0]]"] ;
148 -> 192 ;
193 [label="X[2785] <= 0.0049\ngini = 0.2685\nsamples = 62\nvalue = [[67, 26]\n[26, 67]\n[93, 0]]"] ;
192 -> 193 ;
194 [label="X[2607] <= 0.0102\ngini = 0.2226\nsamples = 58\nvalue = [[67, 18]\n[18, 67]\n[85, 0]]"] ;
193 -> 194 ;
195 [label="X[3692] <= 0.0018\ngini = 0.1906\nsamples = 55\nvalue = [[67, 14]\n[14, 67]\n[81, 0]]"] ;
194 -> 195 ;
196 [label="X[3773] <= 0.0032\ngini = 0.1045\nsamples = 45\nvalue = [[64, 6]\n[6, 64]\n[70, 0]]"] ;
195 -> 196 ;
197 [label="X[946] <= 0.0058\ngini = 0.0208\nsamples = 40\nvalue = [[62, 1]\n[1, 62]\n[63, 0]]"] ;
196 -> 197 ;
198 [label="gini = 0.0\nsamples = 39\nvalue = [[62, 0]\n[0, 62]\n[62, 0]]"] ;
197 -> 198 ;
199 [label="gini = 0.0\nsamples = 1\nvalue = [[0, 1]\n[1, 0]\n[1, 0]]"] ;
197 -> 199 ;
200 [label="X[2561] <= 0.0006\ngini = 0.2721\nsamples = 5\nvalue = [[2, 5]\n[5, 2]\n[7, 0]]"] ;
196 -> 200 ;
201 [label="gini = 0.0\nsamples = 3\nvalue = [[0, 5]\n[5, 0]\n[5, 0]]"] ;
200 -> 201 ;
202 [label="gini = 0.0\nsamples = 2\nvalue = [[2, 0]\n[0, 2]\n[2, 0]]"] ;
200 -> 202 ;
203 [label="X[3288] <= 0.0024\ngini = 0.2645\nsamples = 10\nvalue = [[3, 8]\n[8, 3]\n[11, 0]]"] ;
195 -> 203 ;
204 [label="X[4557] <= 0.0125\ngini = 0.3333\nsamples = 6\nvalue = [[3, 3]\n[3, 3]\n[6, 0]]"] ;
203 -> 204 ;
205 [label="gini = 0.0\nsamples = 3\nvalue = [[0, 3]\n[3, 0]\n[3, 0]]"] ;
204 -> 205 ;
206 [label="gini = 0.0\nsamples = 3\nvalue = [[3, 0]\n[0, 3]\n[3, 0]]"] ;
204 -> 206 ;
207 [label="gini = 0.0\nsamples = 4\nvalue = [[0, 5]\n[5, 0]\n[5, 0]]"] ;
203 -> 207 ;
208 [label="gini = 0.0\nsamples = 3\nvalue = [[0, 4]\n[4, 0]\n[4, 0]]"] ;
194 -> 208 ;
209 [label="gini = 0.0\nsamples = 4\nvalue = [[0, 8]\n[8, 0]\n[8, 0]]"] ;
193 -> 209 ;
210 [label="X[3009] <= 0.004\ngini = 0.2351\nsamples = 20\nvalue = [[8, 27]\n[27, 8]\n[35, 0]]"] ;
192 -> 210 ;
211 [label="X[1929] <= 0.0021\ngini = 0.0459\nsamples = 16\nvalue = [[1, 27]\n[27, 1]\n[28, 0]]"] ;
210 -> 211 ;
212 [label="gini = 0.0\nsamples = 15\nvalue = [[0, 27]\n[27, 0]\n[27, 0]]"] ;
211 -> 212 ;
213 [label="gini = 0.0\nsamples = 1\nvalue = [[1, 0]\n[0, 1]\n[1, 0]]"] ;
211 -> 213 ;
214 [label="gini = 0.0\nsamples = 4\nvalue = [[7, 0]\n[0, 7]\n[7, 0]]"] ;
210 -> 214 ;
215 [label="X[1404] <= 0.0025\ngini = 0.1102\nsamples = 8\nvalue = [[1, 10]\n[10, 1]\n[11, 0]]"] ;
147 -> 215 ;
216 [label="gini = 0.0\nsamples = 7\nvalue = [[0, 10]\n[10, 0]\n[10, 0]]"] ;
215 -> 216 ;
217 [label="gini = 0.0\nsamples = 1\nvalue = [[1, 0]\n[0, 1]\n[1, 0]]"] ;
215 -> 217 ;
218 [label="X[1818] <= 0.0523\ngini = 0.1384\nsamples = 10\nvalue = [[2, 15]\n[15, 2]\n[17, 0]]"] ;
8 -> 218 ;
219 [label="gini = 0.0\nsamples = 9\nvalue = [[0, 15]\n[15, 0]\n[15, 0]]"] ;
218 -> 219 ;
220 [label="gini = 0.0\nsamples = 1\nvalue = [[2, 0]\n[0, 2]\n[2, 0]]"] ;
218 -> 220 ;
221 [label="X[3890] <= 0.0034\ngini = 0.3397\nsamples = 207\nvalue = [[150, 179]\n[184, 145]\n[324, 5]]"] ;
7 -> 221 ;
222 [label="X[14] <= 0.0068\ngini = 0.3383\nsamples = 90\nvalue = [[85, 59]\n[62, 82]\n[141, 3]]"] ;
221 -> 222 ;
223 [label="X[2237] <= 0.0655\ngini = 0.3315\nsamples = 85\nvalue = [[85, 52]\n[55, 82]\n[134, 3]]"] ;
222 -> 223 ;
224 [label="X[1312] <= 0.0055\ngini = 0.3137\nsamples = 77\nvalue = [[83, 40]\n[43, 80]\n[120, 3]]"] ;
223 -> 224 ;
225 [label="X[1827] <= 0.0031\ngini = 0.2842\nsamples = 64\nvalue = [[79, 28]\n[31, 76]\n[104, 3]]"] ;
224 -> 225 ;
226 [label="X[2309] <= 0.002\ngini = 0.246\nsamples = 60\nvalue = [[79, 20]\n[23, 76]\n[96, 3]]"] ;
225 -> 226 ;
227 [label="X[232] <= 0.0143\ngini = 0.1166\nsamples = 37\nvalue = [[58, 5]\n[6, 57]\n[62, 1]]"] ;
226 -> 227 ;
228 [label="X[192] <= 0.053\ngini = 0.0641\nsamples = 35\nvalue = [[58, 2]\n[3, 57]\n[59, 1]]"] ;
227 -> 228 ;
229 [label="X[842] <= 0.0101\ngini = 0.0437\nsamples = 34\nvalue = [[57, 2]\n[2, 57]\n[59, 0]]"] ;
228 -> 229 ;
230 [label="X[3887] <= 0.0125\ngini = 0.0226\nsamples = 33\nvalue = [[57, 1]\n[1, 57]\n[58, 0]]"] ;
229 -> 230 ;
231 [label="gini = 0.0\nsamples = 32\nvalue = [[57, 0]\n[0, 57]\n[57, 0]]"] ;
230 -> 231 ;
232 [label="gini = 0.0\nsamples = 1\nvalue = [[0, 1]\n[1, 0]\n[1, 0]]"] ;
230 -> 232 ;
233 [label="gini = 0.0\nsamples = 1\nvalue = [[0, 1]\n[1, 0]\n[1, 0]]"] ;
229 -> 233 ;
234 [label="gini = 0.0\nsamples = 1\nvalue = [[1, 0]\n[1, 0]\n[0, 1]]"] ;
228 -> 234 ;
235 [label="gini = 0.0\nsamples = 2\nvalue = [[0, 3]\n[3, 0]\n[3, 0]]"] ;
227 -> 235 ;
236 [label="X[2580] <= 0.0022\ngini = 0.3632\nsamples = 23\nvalue = [[21, 15]\n[17, 19]\n[34, 2]]"] ;
226 -> 236 ;
237 [label="X[2687] <= 0.0048\ngini = 0.3472\nsamples = 13\nvalue = [[7, 12]\n[14, 5]\n[17, 2]]"] ;
236 -> 237 ;
238 [label="gini = 0.0\nsamples = 9\nvalue = [[0, 12]\n[12, 0]\n[12, 0]]"] ;
237 -> 238 ;
239 [label="X[3983] <= 0.001\ngini = 0.2721\nsamples = 4\nvalue = [[7, 0]\n[2, 5]\n[5, 2]]"] ;
237 -> 239 ;
240 [label="gini = 0.0\nsamples = 3\nvalue = [[5, 0]\n[0, 5]\n[5, 0]]"] ;
239 -> 240 ;
241 [label="gini = 0.0\nsamples = 1\nvalue = [[2, 0]\n[2, 0]\n[0, 2]]"] ;
239 -> 241 ;
242 [label="X[2575] <= 0.0298\ngini = 0.1938\nsamples = 10\nvalue = [[14, 3]\n[3, 14]\n[17, 0]]"] ;
236 -> 242 ;
243 [label="X[1156] <= 0.0025\ngini = 0.083\nsamples = 9\nvalue = [[14, 1]\n[1, 14]\n[15, 0]]"] ;
242 -> 243 ;
244 [label="gini = 0.0\nsamples = 8\nvalue = [[14, 0]\n[0, 14]\n[14, 0]]"] ;
243 -> 244 ;
245 [label="gini = 0.0\nsamples = 1\nvalue = [[0, 1]\n[1, 0]\n[1, 0]]"] ;
243 -> 245 ;
246 [label="gini = 0.0\nsamples = 1\nvalue = [[0, 2]\n[2, 0]\n[2, 0]]"] ;
242 -> 246 ;
247 [label="gini = 0.0\nsamples = 4\nvalue = [[0, 8]\n[8, 0]\n[8, 0]]"] ;
225 -> 247 ;
248 [label="X[4533] <= 0.0034\ngini = 0.25\nsamples = 13\nvalue = [[4, 12]\n[12, 4]\n[16, 0]]"] ;
224 -> 248 ;
249 [label="gini = 0.0\nsamples = 6\nvalue = [[0, 9]\n[9, 0]\n[9, 0]]"] ;
248 -> 249 ;
250 [label="X[3146] <= 0.0076\ngini = 0.3265\nsamples = 7\nvalue = [[4, 3]\n[3, 4]\n[7, 0]]"] ;
248 -> 250 ;
251 [label="X[4505] <= 0.0049\ngini = 0.25\nsamples = 4\nvalue = [[1, 3]\n[3, 1]\n[4, 0]]"] ;
250 -> 251 ;
252 [label="gini = 0.0\nsamples = 3\nvalue = [[0, 3]\n[3, 0]\n[3, 0]]"] ;
251 -> 252 ;
253 [label="gini = 0.0\nsamples = 1\nvalue = [[1, 0]\n[0, 1]\n[1, 0]]"] ;
251 -> 253 ;
254 [label="gini = 0.0\nsamples = 3\nvalue = [[3, 0]\n[0, 3]\n[3, 0]]"] ;
250 -> 254 ;
255 [label="X[3420] <= 0.0013\ngini = 0.1633\nsamples = 8\nvalue = [[2, 12]\n[12, 2]\n[14, 0]]"] ;
223 -> 255 ;
256 [label="gini = 0.0\nsamples = 7\nvalue = [[0, 12]\n[12, 0]\n[12, 0]]"] ;
255 -> 256 ;
257 [label="gini = 0.0\nsamples = 1\nvalue = [[2, 0]\n[0, 2]\n[2, 0]]"] ;
255 -> 257 ;
258 [label="gini = 0.0\nsamples = 5\nvalue = [[0, 7]\n[7, 0]\n[7, 0]]"] ;
222 -> 258 ;
259 [label="X[325] <= 0.0004\ngini = 0.3088\nsamples = 117\nvalue = [[65, 120]\n[122, 63]\n[183, 2]]"] ;
221 -> 259 ;
260 [label="X[3290] <= 0.0019\ngini = 0.3332\nsamples = 70\nvalue = [[52, 54]\n[54, 52]\n[106, 0]]"] ;
259 -> 260 ;
261 [label="X[2754] <= 0.0088\ngini = 0.3247\nsamples = 62\nvalue = [[39, 54]\n[54, 39]\n[93, 0]]"] ;
260 -> 261 ;
262 [label="X[2637] <= 0.0038\ngini = 0.2963\nsamples = 56\nvalue = [[27, 54]\n[54, 27]\n[81, 0]]"] ;
261 -> 262 ;
263 [label="X[1117] <= 0.0753\ngini = 0.2525\nsamples = 48\nvalue = [[17, 50]\n[50, 17]\n[67, 0]]"] ;
262 -> 263 ;
264 [label="X[2389] <= 0.0076\ngini = 0.1902\nsamples = 40\nvalue = [[10, 48]\n[48, 10]\n[58, 0]]"] ;
263 -> 264 ;
265 [label="X[678] <= 0.0152\ngini = 0.0738\nsamples = 34\nvalue = [[3, 48]\n[48, 3]\n[51, 0]]"] ;
264 -> 265 ;
266 [label="X[4273] <= 0.0016\ngini = 0.0267\nsamples = 32\nvalue = [[1, 48]\n[48, 1]\n[49, 0]]"] ;
265 -> 266 ;
267 [label="gini = 0.0\nsamples = 30\nvalue = [[0, 47]\n[47, 0]\n[47, 0]]"] ;
266 -> 267 ;
268 [label="X[594] <= 0.0009\ngini = 0.3333\nsamples = 2\nvalue = [[1, 1]\n[1, 1]\n[2, 0]]"] ;
266 -> 268 ;
269 [label="gini = 0.0\nsamples = 1\nvalue = [[1, 0]\n[0, 1]\n[1, 0]]"] ;
268 -> 269 ;
270 [label="gini = 0.0\nsamples = 1\nvalue = [[0, 1]\n[1, 0]\n[1, 0]]"] ;
268 -> 270 ;
271 [label="gini = 0.0\nsamples = 2\nvalue = [[2, 0]\n[0, 2]\n[2, 0]]"] ;
265 -> 271 ;
272 [label="gini = 0.0\nsamples = 6\nvalue = [[7, 0]\n[0, 7]\n[7, 0]]"] ;
264 -> 272 ;
273 [label="X[930] <= 0.0009\ngini = 0.2305\nsamples = 8\nvalue = [[7, 2]\n[2, 7]\n[9, 0]]"] ;
263 -> 273 ;
274 [label="gini = 0.0\nsamples = 6\nvalue = [[7, 0]\n[0, 7]\n[7, 0]]"] ;
273 -> 274 ;
275 [label="gini = 0.0\nsamples = 2\nvalue = [[0, 2]\n[2, 0]\n[2, 0]]"] ;
273 -> 275 ;
276 [label="X[4092] <= 0.0109\ngini = 0.2721\nsamples = 8\nvalue = [[10, 4]\n[4, 10]\n[14, 0]]"] ;
262 -> 276 ;
277 [label="gini = 0.0\nsamples = 5\nvalue = [[10, 0]\n[0, 10]\n[10, 0]]"] ;
276 -> 277 ;
278 [label="gini = 0.0\nsamples = 3\nvalue = [[0, 4]\n[4, 0]\n[4, 0]]"] ;
276 -> 278 ;
279 [label="gini = 0.0\nsamples = 6\nvalue = [[12, 0]\n[0, 12]\n[12, 0]]"] ;
261 -> 279 ;
280 [label="gini = 0.0\nsamples = 8\nvalue = [[13, 0]\n[0, 13]\n[13, 0]]"] ;
260 -> 280 ;
281 [label="X[4651] <= 0.0121\ngini = 0.188\nsamples = 47\nvalue = [[13, 66]\n[68, 11]\n[77, 2]]"] ;
259 -> 281 ;
282 [label="X[2095] <= 0.0093\ngini = 0.1441\nsamples = 45\nvalue = [[9, 66]\n[68, 7]\n[73, 2]]"] ;
281 -> 282 ;
283 [label="X[4820] <= 0.0326\ngini = 0.1039\nsamples = 44\nvalue = [[6, 66]\n[68, 4]\n[70, 2]]"] ;
282 -> 283 ;
284 [label="X[3934] <= 0.0106\ngini = 0.0718\nsamples = 43\nvalue = [[4, 66]\n[66, 4]\n[70, 0]]"] ;
283 -> 284 ;
285 [label="X[481] <= 0.0145\ngini = 0.0196\nsamples = 41\nvalue = [[1, 66]\n[66, 1]\n[67, 0]]"] ;
284 -> 285 ;
286 [label="gini = 0.0\nsamples = 40\nvalue = [[0, 66]\n[66, 0]\n[66, 0]]"] ;
285 -> 286 ;
287 [label="gini = 0.0\nsamples = 1\nvalue = [[1, 0]\n[0, 1]\n[1, 0]]"] ;
285 -> 287 ;
288 [label="gini = 0.0\nsamples = 2\nvalue = [[3, 0]\n[0, 3]\n[3, 0]]"] ;
284 -> 288 ;
289 [label="gini = 0.0\nsamples = 1\nvalue = [[2, 0]\n[2, 0]\n[0, 2]]"] ;
283 -> 289 ;
290 [label="gini = 0.0\nsamples = 1\nvalue = [[3, 0]\n[0, 3]\n[3, 0]]"] ;
282 -> 290 ;
291 [label="gini = 0.0\nsamples = 2\nvalue = [[4, 0]\n[0, 4]\n[4, 0]]"] ;
281 -> 291 ;
292 [label="X[2893] <= 0.0025\ngini = 0.1999\nsamples = 29\nvalue = [[9, 40]\n[40, 9]\n[49, 0]]"] ;
6 -> 292 ;
293 [label="X[1958] <= 0.0059\ngini = 0.1317\nsamples = 26\nvalue = [[5, 40]\n[40, 5]\n[45, 0]]"] ;
292 -> 293 ;
294 [label="X[2535] <= 0.027\ngini = 0.0865\nsamples = 25\nvalue = [[3, 40]\n[40, 3]\n[43, 0]]"] ;
293 -> 294 ;
295 [label="gini = 0.0\nsamples = 23\nvalue = [[0, 40]\n[40, 0]\n[40, 0]]"] ;
294 -> 295 ;
296 [label="gini = 0.0\nsamples = 2\nvalue = [[3, 0]\n[0, 3]\n[3, 0]]"] ;
294 -> 296 ;
297 [label="gini = 0.0\nsamples = 1\nvalue = [[2, 0]\n[0, 2]\n[2, 0]]"] ;
293 -> 297 ;
298 [label="gini = 0.0\nsamples = 3\nvalue = [[4, 0]\n[0, 4]\n[4, 0]]"] ;
292 -> 298 ;
299 [label="X[2219] <= 0.0031\ngini = 0.0416\nsamples = 15\nvalue = [[1, 30]\n[30, 1]\n[31, 0]]"] ;
5 -> 299 ;
300 [label="gini = 0.0\nsamples = 14\nvalue = [[0, 30]\n[30, 0]\n[30, 0]]"] ;
299 -> 300 ;
301 [label="gini = 0.0\nsamples = 1\nvalue = [[1, 0]\n[0, 1]\n[1, 0]]"] ;
299 -> 301 ;
302 [label="X[33] <= 0.0036\ngini = 0.3206\nsamples = 264\nvalue = [[165, 259]\n[262, 162]\n[421, 3]]"] ;
4 -> 302 ;
303 [label="X[4403] <= 0.0025\ngini = 0.3151\nsamples = 254\nvalue = [[153, 258]\n[261, 150]\n[408, 3]]"] ;
302 -> 303 ;
304 [label="X[3411] <= 0.0035\ngini = 0.2827\nsamples = 187\nvalue = [[93, 219]\n[222, 90]\n[309, 3]]"] ;
303 -> 304 ;
305 [label="X[2957] <= 0.0062\ngini = 0.2668\nsamples = 179\nvalue = [[81, 218]\n[221, 78]\n[296, 3]]"] ;
304 -> 305 ;
306 [label="X[2179] <= 0.003\ngini = 0.2412\nsamples = 161\nvalue = [[63, 208]\n[211, 60]\n[268, 3]]"] ;
305 -> 306 ;
307 [label="X[3906] <= 0.0028\ngini = 0.22\nsamples = 154\nvalue = [[53, 206]\n[209, 50]\n[256, 3]]"] ;
306 -> 307 ;
308 [label="X[3889] <= 0.004\ngini = 0.1903\nsamples = 141\nvalue = [[40, 196]\n[199, 37]\n[233, 3]]"] ;
307 -> 308 ;
309 [label="X[3892] <= 0.0065\ngini = 0.2741\nsamples = 81\nvalue = [[35, 92]\n[95, 32]\n[124, 3]]"] ;
308 -> 309 ;
310 [label="X[1206] <= 0.0069\ngini = 0.2127\nsamples = 70\nvalue = [[22, 90]\n[91, 21]\n[111, 1]]"] ;
309 -> 310 ;
311 [label="X[4602] <= 0.0025\ngini = 0.169\nsamples = 62\nvalue = [[15, 87]\n[88, 14]\n[101, 1]]"] ;
310 -> 311 ;
312 [label="X[2750] <= 0.0107\ngini = 0.1342\nsamples = 60\nvalue = [[11, 87]\n[88, 10]\n[97, 1]]"] ;
311 -> 312 ;
313 [label="X[1028] <= 0.0067\ngini = 0.1039\nsamples = 59\nvalue = [[8, 87]\n[88, 7]\n[94, 1]]"] ;
312 -> 313 ;
314 [label="X[1574] <= 0.0032\ngini = 0.0812\nsamples = 57\nvalue = [[6, 87]\n[88, 5]\n[92, 1]]"] ;
313 -> 314 ;
315 [label="X[3133] <= 0.0024\ngini = 0.0433\nsamples = 54\nvalue = [[3, 87]\n[88, 2]\n[89, 1]]"] ;
314 -> 315 ;
316 [label="gini = 0.0\nsamples = 1\nvalue = [[1, 0]\n[1, 0]\n[0, 1]]"] ;
315 -> 316 ;
317 [label="X[3928] <= 0.0142\ngini = 0.0293\nsamples = 53\nvalue = [[2, 87]\n[87, 2]\n[89, 0]]"] ;
315 -> 317 ;
318 [label="X[1977] <= 0.0047\ngini = 0.015\nsamples = 52\nvalue = [[1, 87]\n[87, 1]\n[88, 0]]"] ;
317 -> 318 ;
319 [label="gini = 0.0\nsamples = 49\nvalue = [[0, 84]\n[84, 0]\n[84, 0]]"] ;
318 -> 319 ;
320 [label="X[2407] <= 0.0034\ngini = 0.25\nsamples = 3\nvalue = [[1, 3]\n[3, 1]\n[4, 0]]"] ;
318 -> 320 ;
321 [label="gini = 0.0\nsamples = 1\nvalue = [[1, 0]\n[0, 1]\n[1, 0]]"] ;
320 -> 321 ;
322 [label="gini = 0.0\nsamples = 2\nvalue = [[0, 3]\n[3, 0]\n[3, 0]]"] ;
320 -> 322 ;
323 [label="gini = 0.0\nsamples = 1\nvalue = [[1, 0]\n[0, 1]\n[1, 0]]"] ;
317 -> 323 ;
324 [label="gini = 0.0\nsamples = 3\nvalue = [[3, 0]\n[0, 3]\n[3, 0]]"] ;
314 -> 324 ;
325 [label="gini = 0.0\nsamples = 2\nvalue = [[2, 0]\n[0, 2]\n[2, 0]]"] ;
313 -> 325 ;
326 [label="gini = 0.0\nsamples = 1\nvalue = [[3, 0]\n[0, 3]\n[3, 0]]"] ;
312 -> 326 ;
327 [label="gini = 0.0\nsamples = 2\nvalue = [[4, 0]\n[0, 4]\n[4, 0]]"] ;
311 -> 327 ;
328 [label="X[3516] <= 0.0038\ngini = 0.28\nsamples = 8\nvalue = [[7, 3]\n[3, 7]\n[10, 0]]"] ;
310 -> 328 ;
329 [label="gini = 0.0\nsamples = 6\nvalue = [[7, 0]\n[0, 7]\n[7, 0]]"] ;
328 -> 329 ;
330 [label="gini = 0.0\nsamples = 2\nvalue = [[0, 3]\n[3, 0]\n[3, 0]]"] ;
328 -> 330 ;
331 [label="X[3924] <= 0.0103\ngini = 0.2844\nsamples = 11\nvalue = [[13, 2]\n[4, 11]\n[13, 2]]"] ;
309 -> 331 ;
332 [label="gini = 0.0\nsamples = 7\nvalue = [[11, 0]\n[0, 11]\n[11, 0]]"] ;
331 -> 332 ;
333 [label="X[3946] <= 0.0064\ngini = 0.3333\nsamples = 4\nvalue = [[2, 2]\n[4, 0]\n[2, 2]]"] ;
331 -> 333 ;
334 [label="gini = 0.0\nsamples = 2\nvalue = [[0, 2]\n[2, 0]\n[2, 0]]"] ;
333 -> 334 ;
335 [label="gini = 0.0\nsamples = 2\nvalue = [[2, 0]\n[2, 0]\n[0, 2]]"] ;
333 -> 335 ;
336 [label="X[179] <= 0.0472\ngini = 0.0584\nsamples = 60\nvalue = [[5, 104]\n[104, 5]\n[109, 0]]"] ;
308 -> 336 ;
337 [label="X[1551] <= 0.0068\ngini = 0.0129\nsamples = 54\nvalue = [[1, 101]\n[101, 1]\n[102, 0]]"] ;
336 -> 337 ;
338 [label="gini = 0.0\nsamples = 53\nvalue = [[0, 101]\n[101, 0]\n[101, 0]]"] ;
337 -> 338 ;
339 [label="gini = 0.0\nsamples = 1\nvalue = [[1, 0]\n[0, 1]\n[1, 0]]"] ;
337 -> 339 ;
340 [label="X[4594] <= 0.0009\ngini = 0.3265\nsamples = 6\nvalue = [[4, 3]\n[3, 4]\n[7, 0]]"] ;
336 -> 340 ;
341 [label="gini = 0.0\nsamples = 3\nvalue = [[0, 3]\n[3, 0]\n[3, 0]]"] ;
340 -> 341 ;
342 [label="gini = 0.0\nsamples = 3\nvalue = [[4, 0]\n[0, 4]\n[4, 0]]"] ;
340 -> 342 ;
343 [label="X[3321] <= 0.0039\ngini = 0.3277\nsamples = 13\nvalue = [[13, 10]\n[10, 13]\n[23, 0]]"] ;
307 -> 343 ;
344 [label="X[4915] <= 0.0031\ngini = 0.2367\nsamples = 8\nvalue = [[3, 10]\n[10, 3]\n[13, 0]]"] ;
343 -> 344 ;
345 [label="gini = 0.0\nsamples = 5\nvalue = [[0, 9]\n[9, 0]\n[9, 0]]"] ;
344 -> 345 ;
346 [label="X[1080] <= 0.0016\ngini = 0.25\nsamples = 3\nvalue = [[3, 1]\n[1, 3]\n[4, 0]]"] ;
344 -> 346 ;
347 [label="gini = 0.0\nsamples = 1\nvalue = [[0, 1]\n[1, 0]\n[1, 0]]"] ;
346 -> 347 ;
348 [label="gini = 0.0\nsamples = 2\nvalue = [[3, 0]\n[0, 3]\n[3, 0]]"] ;
346 -> 348 ;
349 [label="gini = 0.0\nsamples = 5\nvalue = [[10, 0]\n[0, 10]\n[10, 0]]"] ;
343 -> 349 ;
350 [label="X[4543] <= 0.0121\ngini = 0.1852\nsamples = 7\nvalue = [[10, 2]\n[2, 10]\n[12, 0]]"] ;
306 -> 350 ;
351 [label="gini = 0.0\nsamples = 6\nvalue = [[10, 0]\n[0, 10]\n[10, 0]]"] ;
350 -> 351 ;
352 [label="gini = 0.0\nsamples = 1\nvalue = [[0, 2]\n[2, 0]\n[2, 0]]"] ;
350 -> 352 ;
353 [label="X[2343] <= 0.0022\ngini = 0.3061\nsamples = 18\nvalue = [[18, 10]\n[10, 18]\n[28, 0]]"] ;
305 -> 353 ;
354 [label="X[1950] <= 0.005\ngini = 0.2268\nsamples = 15\nvalue = [[18, 5]\n[5, 18]\n[23, 0]]"] ;
353 -> 354 ;
355 [label="X[3895] <= 0.0089\ngini = 0.12\nsamples = 13\nvalue = [[18, 2]\n[2, 18]\n[20, 0]]"] ;
354 -> 355 ;
356 [label="X[562] <= 0.0358\ngini = 0.0665\nsamples = 12\nvalue = [[18, 1]\n[1, 18]\n[19, 0]]"] ;
355 -> 356 ;
357 [label="gini = 0.0\nsamples = 11\nvalue = [[18, 0]\n[0, 18]\n[18, 0]]"] ;
356 -> 357 ;
358 [label="gini = 0.0\nsamples = 1\nvalue = [[0, 1]\n[1, 0]\n[1, 0]]"] ;
356 -> 358 ;
359 [label="gini = 0.0\nsamples = 1\nvalue = [[0, 1]\n[1, 0]\n[1, 0]]"] ;
355 -> 359 ;
360 [label="gini = 0.0\nsamples = 2\nvalue = [[0, 3]\n[3, 0]\n[3, 0]]"] ;
354 -> 360 ;
361 [label="gini = 0.0\nsamples = 3\nvalue = [[0, 5]\n[5, 0]\n[5, 0]]"] ;
353 -> 361 ;
362 [label="X[1246] <= 0.0032\ngini = 0.0947\nsamples = 8\nvalue = [[12, 1]\n[1, 12]\n[13, 0]]"] ;
304 -> 362 ;
363 [label="gini = 0.0\nsamples = 7\nvalue = [[12, 0]\n[0, 12]\n[12, 0]]"] ;
362 -> 363 ;
364 [label="gini = 0.0\nsamples = 1\nvalue = [[0, 1]\n[1, 0]\n[1, 0]]"] ;
362 -> 364 ;
365 [label="X[3039] <= 0.0113\ngini = 0.3183\nsamples = 67\nvalue = [[60, 39]\n[39, 60]\n[99, 0]]"] ;
303 -> 365 ;
366 [label="X[2972] <= 0.0022\ngini = 0.2893\nsamples = 62\nvalue = [[60, 28]\n[28, 60]\n[88, 0]]"] ;
365 -> 366 ;
367 [label="X[3260] <= 0.0041\ngini = 0.2963\nsamples = 23\nvalue = [[11, 22]\n[22, 11]\n[33, 0]]"] ;
366 -> 367 ;
368 [label="X[443] <= 0.0043\ngini = 0.2442\nsamples = 20\nvalue = [[7, 22]\n[22, 7]\n[29, 0]]"] ;
367 -> 368 ;
369 [label="X[2107] <= 0.0012\ngini = 0.1408\nsamples = 17\nvalue = [[3, 22]\n[22, 3]\n[25, 0]]"] ;
368 -> 369 ;
370 [label="X[869] <= 0.0087\ngini = 0.0555\nsamples = 15\nvalue = [[1, 22]\n[22, 1]\n[23, 0]]"] ;
369 -> 370 ;
371 [label="gini = 0.0\nsamples = 14\nvalue = [[0, 22]\n[22, 0]\n[22, 0]]"] ;
370 -> 371 ;
372 [label="gini = 0.0\nsamples = 1\nvalue = [[1, 0]\n[0, 1]\n[1, 0]]"] ;
370 -> 372 ;
373 [label="gini = 0.0\nsamples = 2\nvalue = [[2, 0]\n[0, 2]\n[2, 0]]"] ;
369 -> 373 ;
374 [label="gini = 0.0\nsamples = 3\nvalue = [[4, 0]\n[0, 4]\n[4, 0]]"] ;
368 -> 374 ;
375 [label="gini = 0.0\nsamples = 3\nvalue = [[4, 0]\n[0, 4]\n[4, 0]]"] ;
367 -> 375 ;
376 [label="X[1559] <= 0.0038\ngini = 0.1296\nsamples = 39\nvalue = [[49, 6]\n[6, 49]\n[55, 0]]"] ;
366 -> 376 ;
377 [label="X[628] <= 0.0039\ngini = 0.0512\nsamples = 34\nvalue = [[48, 2]\n[2, 48]\n[50, 0]]"] ;
376 -> 377 ;
378 [label="X[2019] <= 0.0004\ngini = 0.0267\nsamples = 33\nvalue = [[48, 1]\n[1, 48]\n[49, 0]]"] ;
377 -> 378 ;
379 [label="gini = 0.0\nsamples = 1\nvalue = [[0, 1]\n[1, 0]\n[1, 0]]"] ;
378 -> 379 ;
380 [label="gini = 0.0\nsamples = 32\nvalue = [[48, 0]\n[0, 48]\n[48, 0]]"] ;
378 -> 380 ;
381 [label="gini = 0.0\nsamples = 1\nvalue = [[0, 1]\n[1, 0]\n[1, 0]]"] ;
377 -> 381 ;
382 [label="X[3869] <= 0.008\ngini = 0.2133\nsamples = 5\nvalue = [[1, 4]\n[4, 1]\n[5, 0]]"] ;
376 -> 382 ;
383 [label="gini = 0.0\nsamples = 4\nvalue = [[0, 4]\n[4, 0]\n[4, 0]]"] ;
382 -> 383 ;
384 [label="gini = 0.0\nsamples = 1\nvalue = [[1, 0]\n[0, 1]\n[1, 0]]"] ;
382 -> 384 ;
385 [label="gini = 0.0\nsamples = 5\nvalue = [[0, 11]\n[11, 0]\n[11, 0]]"] ;
365 -> 385 ;
386 [label="X[3828] <= 0.1641\ngini = 0.0947\nsamples = 10\nvalue = [[12, 1]\n[1, 12]\n[13, 0]]"] ;
302 -> 386 ;
387 [label="gini = 0.0\nsamples = 9\nvalue = [[12, 0]\n[0, 12]\n[12, 0]]"] ;
386 -> 387 ;
388 [label="gini = 0.0\nsamples = 1\nvalue = [[0, 1]\n[1, 0]\n[1, 0]]"] ;
386 -> 388 ;
389 [label="X[4768] <= 0.0046\ngini = 0.3265\nsamples = 363\nvalue = [[362, 213]\n[224, 351]\n[564, 11]]"] ;
3 -> 389 ;
390 [label="X[944] <= 0.0224\ngini = 0.3192\nsamples = 346\nvalue = [[357, 190]\n[201, 346]\n[536, 11]]"] ;
389 -> 390 ;
391 [label="X[2412] <= 0.0059\ngini = 0.3109\nsamples = 324\nvalue = [[346, 166]\n[177, 335]\n[501, 11]]"] ;
390 -> 391 ;
392 [label="X[2073] <= 0.0032\ngini = 0.3006\nsamples = 306\nvalue = [[340, 146]\n[157, 329]\n[475, 11]]"] ;
391 -> 392 ;
393 [label="X[2960] <= 0.0063\ngini = 0.337\nsamples = 200\nvalue = [[200, 115]\n[126, 189]\n[304, 11]]"] ;
392 -> 393 ;
394 [label="X[2903] <= 0.0008\ngini = 0.346\nsamples = 169\nvalue = [[155, 110]\n[118, 147]\n[257, 8]]"] ;
393 -> 394 ;
395 [label="X[1541] <= 0.0131\ngini = 0.3225\nsamples = 115\nvalue = [[124, 58]\n[65, 117]\n[175, 7]]"] ;
394 -> 395 ;
396 [label="X[3178] <= 0.0138\ngini = 0.311\nsamples = 110\nvalue = [[124, 51]\n[58, 117]\n[168, 7]]"] ;
395 -> 396 ;
397 [label="X[4151] <= 0.0024\ngini = 0.2819\nsamples = 107\nvalue = [[117, 51]\n[51, 117]\n[168, 0]]"] ;
396 -> 397 ;
398 [label="X[1683] <= 0.0176\ngini = 0.3237\nsamples = 70\nvalue = [[62, 44]\n[44, 62]\n[106, 0]]"] ;
397 -> 398 ;
399 [label="X[4398] <= 0.0033\ngini = 0.2887\nsamples = 53\nvalue = [[56, 26]\n[26, 56]\n[82, 0]]"] ;
398 -> 399 ;
400 [label="X[2660] <= 0.0075\ngini = 0.2424\nsamples = 43\nvalue = [[51, 16]\n[16, 51]\n[67, 0]]"] ;
399 -> 400 ;
401 [label="X[1275] <= 0.0103\ngini = 0.1946\nsamples = 40\nvalue = [[51, 11]\n[11, 51]\n[62, 0]]"] ;
400 -> 401 ;
402 [label="X[3490] <= 0.0076\ngini = 0.1415\nsamples = 37\nvalue = [[51, 7]\n[7, 51]\n[58, 0]]"] ;
401 -> 402 ;
403 [label="X[2561] <= 0.0061\ngini = 0.1084\nsamples = 36\nvalue = [[51, 5]\n[5, 51]\n[56, 0]]"] ;
402 -> 403 ;
404 [label="X[2726] <= 0.0073\ngini = 0.0256\nsamples = 32\nvalue = [[50, 1]\n[1, 50]\n[51, 0]]"] ;
403 -> 404 ;
405 [label="gini = 0.0\nsamples = 31\nvalue = [[50, 0]\n[0, 50]\n[50, 0]]"] ;
404 -> 405 ;
406 [label="gini = 0.0\nsamples = 1\nvalue = [[0, 1]\n[1, 0]\n[1, 0]]"] ;
404 -> 406 ;
407 [label="X[1265] <= 0.002\ngini = 0.2133\nsamples = 4\nvalue = [[1, 4]\n[4, 1]\n[5, 0]]"] ;
403 -> 407 ;
408 [label="gini = 0.0\nsamples = 3\nvalue = [[0, 4]\n[4, 0]\n[4, 0]]"] ;
407 -> 408 ;
409 [label="gini = 0.0\nsamples = 1\nvalue = [[1, 0]\n[0, 1]\n[1, 0]]"] ;
407 -> 409 ;
410 [label="gini = 0.0\nsamples = 1\nvalue = [[0, 2]\n[2, 0]\n[2, 0]]"] ;
402 -> 410 ;
411 [label="gini = 0.0\nsamples = 3\nvalue = [[0, 4]\n[4, 0]\n[4, 0]]"] ;
401 -> 411 ;
412 [label="gini = 0.0\nsamples = 3\nvalue = [[0, 5]\n[5, 0]\n[5, 0]]"] ;
400 -> 412 ;
413 [label="X[2036] <= 0.002\ngini = 0.2963\nsamples = 10\nvalue = [[5, 10]\n[10, 5]\n[15, 0]]"] ;
399 -> 413 ;
414 [label="X[634] <= 0.0079\ngini = 0.1852\nsamples = 8\nvalue = [[2, 10]\n[10, 2]\n[12, 0]]"] ;
413 -> 414 ;
415 [label="gini = 0.0\nsamples = 7\nvalue = [[0, 10]\n[10, 0]\n[10, 0]]"] ;
414 -> 415 ;
416 [label="gini = 0.0\nsamples = 1\nvalue = [[2, 0]\n[0, 2]\n[2, 0]]"] ;
414 -> 416 ;
417 [label="gini = 0.0\nsamples = 2\nvalue = [[3, 0]\n[0, 3]\n[3, 0]]"] ;
413 -> 417 ;
418 [label="X[4100] <= 0.0041\ngini = 0.25\nsamples = 17\nvalue = [[6, 18]\n[18, 6]\n[24, 0]]"] ;
398 -> 418 ;
419 [label="gini = 0.0\nsamples = 2\nvalue = [[3, 0]\n[0, 3]\n[3, 0]]"] ;
418 -> 419 ;
420 [label="X[4586] <= 0.0093\ngini = 0.1633\nsamples = 15\nvalue = [[3, 18]\n[18, 3]\n[21, 0]]"] ;
418 -> 420 ;
421 [label="gini = 0.0\nsamples = 11\nvalue = [[0, 16]\n[16, 0]\n[16, 0]]"] ;
420 -> 421 ;
422 [label="X[3186] <= 0.0067\ngini = 0.32\nsamples = 4\nvalue = [[3, 2]\n[2, 3]\n[5, 0]]"] ;
420 -> 422 ;
423 [label="gini = 0.0\nsamples = 3\nvalue = [[3, 0]\n[0, 3]\n[3, 0]]"] ;
422 -> 423 ;
424 [label="gini = 0.0\nsamples = 1\nvalue = [[0, 2]\n[2, 0]\n[2, 0]]"] ;
422 -> 424 ;
425 [label="X[297] <= 0.0045\ngini = 0.1335\nsamples = 37\nvalue = [[55, 7]\n[7, 55]\n[62, 0]]"] ;
397 -> 425 ;
426 [label="X[2316] <= 0.0039\ngini = 0.0843\nsamples = 35\nvalue = [[55, 4]\n[4, 55]\n[59, 0]]"] ;
425 -> 426 ;
427 [label="gini = 0.0\nsamples = 30\nvalue = [[52, 0]\n[0, 52]\n[52, 0]]"] ;
426 -> 427 ;
428 [label="X[4584] <= 0.0017\ngini = 0.3265\nsamples = 5\nvalue = [[3, 4]\n[4, 3]\n[7, 0]]"] ;
426 -> 428 ;
429 [label="gini = 0.0\nsamples = 3\nvalue = [[0, 4]\n[4, 0]\n[4, 0]]"] ;
428 -> 429 ;
430 [label="gini = 0.0\nsamples = 2\nvalue = [[3, 0]\n[0, 3]\n[3, 0]]"] ;
428 -> 430 ;
431 [label="gini = 0.0\nsamples = 2\nvalue = [[0, 3]\n[3, 0]\n[3, 0]]"] ;
425 -> 431 ;
432 [label="gini = 0.0\nsamples = 3\nvalue = [[7, 0]\n[7, 0]\n[0, 7]]"] ;
396 -> 432 ;
433 [label="gini = 0.0\nsamples = 5\nvalue = [[0, 7]\n[7, 0]\n[7, 0]]"] ;
395 -> 433 ;
434 [label="X[671] <= 0.0009\ngini = 0.3178\nsamples = 54\nvalue = [[31, 52]\n[53, 30]\n[82, 1]]"] ;
394 -> 434 ;
435 [label="X[2415] <= 0.0024\ngini = 0.2798\nsamples = 44\nvalue = [[20, 49]\n[50, 19]\n[68, 1]]"] ;
434 -> 435 ;
436 [label="X[112] <= 0.0051\ngini = 0.2146\nsamples = 38\nvalue = [[12, 49]\n[50, 11]\n[60, 1]]"] ;
435 -> 436 ;
437 [label="X[1515] <= 0.0058\ngini = 0.1637\nsamples = 35\nvalue = [[8, 49]\n[50, 7]\n[56, 1]]"] ;
436 -> 437 ;
438 [label="X[2561] <= 0.0137\ngini = 0.0962\nsamples = 31\nvalue = [[4, 48]\n[49, 3]\n[51, 1]]"] ;
437 -> 438 ;
439 [label="X[3843] <= 0.0155\ngini = 0.0512\nsamples = 29\nvalue = [[2, 48]\n[48, 2]\n[50, 0]]"] ;
438 -> 439 ;
440 [label="X[1050] <= 0.0106\ngini = 0.0267\nsamples = 28\nvalue = [[1, 48]\n[48, 1]\n[49, 0]]"] ;
439 -> 440 ;
441 [label="gini = 0.0\nsamples = 27\nvalue = [[0, 48]\n[48, 0]\n[48, 0]]"] ;
440 -> 441 ;
442 [label="gini = 0.0\nsamples = 1\nvalue = [[1, 0]\n[0, 1]\n[1, 0]]"] ;
440 -> 442 ;
443 [label="gini = 0.0\nsamples = 1\nvalue = [[1, 0]\n[0, 1]\n[1, 0]]"] ;
439 -> 443 ;
444 [label="X[3800] <= 0.0038\ngini = 0.3333\nsamples = 2\nvalue = [[2, 0]\n[1, 1]\n[1, 1]]"] ;
438 -> 444 ;
445 [label="gini = 0.0\nsamples = 1\nvalue = [[1, 0]\n[1, 0]\n[0, 1]]"] ;
444 -> 445 ;
446 [label="gini = 0.0\nsamples = 1\nvalue = [[1, 0]\n[0, 1]\n[1, 0]]"] ;
444 -> 446 ;
447 [label="X[1170] <= 0.005\ngini = 0.2133\nsamples = 4\nvalue = [[4, 1]\n[1, 4]\n[5, 0]]"] ;
437 -> 447 ;
448 [label="gini = 0.0\nsamples = 3\nvalue = [[4, 0]\n[0, 4]\n[4, 0]]"] ;
447 -> 448 ;
449 [label="gini = 0.0\nsamples = 1\nvalue = [[0, 1]\n[1, 0]\n[1, 0]]"] ;
447 -> 449 ;
450 [label="gini = 0.0\nsamples = 3\nvalue = [[4, 0]\n[0, 4]\n[4, 0]]"] ;
436 -> 450 ;
451 [label="gini = 0.0\nsamples = 6\nvalue = [[8, 0]\n[0, 8]\n[8, 0]]"] ;
435 -> 451 ;
452 [label="X[2204] <= 0.0015\ngini = 0.2245\nsamples = 10\nvalue = [[11, 3]\n[3, 11]\n[14, 0]]"] ;
434 -> 452 ;
453 [label="X[670] <= 0.0119\ngini = 0.25\nsamples = 4\nvalue = [[1, 3]\n[3, 1]\n[4, 0]]"] ;
452 -> 453 ;
454 [label="gini = 0.0\nsamples = 3\nvalue = [[0, 3]\n[3, 0]\n[3, 0]]"] ;
453 -> 454 ;
455 [label="gini = 0.0\nsamples = 1\nvalue = [[1, 0]\n[0, 1]\n[1, 0]]"] ;
453 -> 455 ;
456 [label="gini = 0.0\nsamples = 6\nvalue = [[10, 0]\n[0, 10]\n[10, 0]]"] ;
452 -> 456 ;
457 [label="X[4322] <= 0.0019\ngini = 0.1872\nsamples = 31\nvalue = [[45, 5]\n[8, 42]\n[47, 3]]"] ;
393 -> 457 ;
458 [label="X[1133] <= 0.0137\ngini = 0.4267\nsamples = 3\nvalue = [[3, 2]\n[4, 1]\n[3, 2]]"] ;
457 -> 458 ;
459 [label="X[3645] <= 0.0032\ngini = 0.2963\nsamples = 2\nvalue = [[1, 2]\n[2, 1]\n[3, 0]]"] ;
458 -> 459 ;
460 [label="gini = 0.0\nsamples = 1\nvalue = [[0, 2]\n[2, 0]\n[2, 0]]"] ;
459 -> 460 ;
461 [label="gini = 0.0\nsamples = 1\nvalue = [[1, 0]\n[0, 1]\n[1, 0]]"] ;
459 -> 461 ;
462 [label="gini = 0.0\nsamples = 1\nvalue = [[2, 0]\n[2, 0]\n[0, 2]]"] ;
458 -> 462 ;
463 [label="X[2290] <= 0.0075\ngini = 0.11\nsamples = 28\nvalue = [[42, 3]\n[4, 41]\n[44, 1]]"] ;
457 -> 463 ;
464 [label="X[1464] <= 0.0142\ngini = 0.0847\nsamples = 27\nvalue = [[41, 3]\n[3, 41]\n[44, 0]]"] ;
463 -> 464 ;
465 [label="X[4149] <= 0.0576\ngini = 0.031\nsamples = 25\nvalue = [[41, 1]\n[1, 41]\n[42, 0]]"] ;
464 -> 465 ;
466 [label="gini = 0.0\nsamples = 24\nvalue = [[41, 0]\n[0, 41]\n[41, 0]]"] ;
465 -> 466 ;
467 [label="gini = 0.0\nsamples = 1\nvalue = [[0, 1]\n[1, 0]\n[1, 0]]"] ;
465 -> 467 ;
468 [label="gini = 0.0\nsamples = 2\nvalue = [[0, 2]\n[2, 0]\n[2, 0]]"] ;
464 -> 468 ;
469 [label="gini = 0.0\nsamples = 1\nvalue = [[1, 0]\n[1, 0]\n[0, 1]]"] ;
463 -> 469 ;
470 [label="X[4218] <= 0.0115\ngini = 0.1979\nsamples = 106\nvalue = [[140, 31]\n[31, 140]\n[171, 0]]"] ;
392 -> 470 ;
471 [label="X[2840] <= 0.0076\ngini = 0.1807\nsamples = 103\nvalue = [[140, 27]\n[27, 140]\n[167, 0]]"] ;
470 -> 471 ;
472 [label="X[4747] <= 0.0008\ngini = 0.1537\nsamples = 98\nvalue = [[137, 21]\n[21, 137]\n[158, 0]]"] ;
471 -> 472 ;
473 [label="X[174] <= 0.0011\ngini = 0.1142\nsamples = 90\nvalue = [[134, 14]\n[14, 134]\n[148, 0]]"] ;
472 -> 473 ;
474 [label="X[4013] <= 0.0038\ngini = 0.0574\nsamples = 79\nvalue = [[127, 6]\n[6, 127]\n[133, 0]]"] ;
473 -> 474 ;
475 [label="X[55] <= 0.0226\ngini = 0.0301\nsamples = 77\nvalue = [[127, 3]\n[3, 127]\n[130, 0]]"] ;
474 -> 475 ;
476 [label="X[2978] <= 0.017\ngini = 0.0103\nsamples = 76\nvalue = [[127, 1]\n[1, 127]\n[128, 0]]"] ;
475 -> 476 ;
477 [label="gini = 0.0\nsamples = 75\nvalue = [[127, 0]\n[0, 127]\n[127, 0]]"] ;
476 -> 477 ;
478 [label="gini = 0.0\nsamples = 1\nvalue = [[0, 1]\n[1, 0]\n[1, 0]]"] ;
476 -> 478 ;
479 [label="gini = 0.0\nsamples = 1\nvalue = [[0, 2]\n[2, 0]\n[2, 0]]"] ;
475 -> 479 ;
480 [label="gini = 0.0\nsamples = 2\nvalue = [[0, 3]\n[3, 0]\n[3, 0]]"] ;
474 -> 480 ;
481 [label="X[2807] <= 0.001\ngini = 0.3319\nsamples = 11\nvalue = [[7, 8]\n[8, 7]\n[15, 0]]"] ;
473 -> 481 ;
482 [label="X[4141] <= 0.0037\ngini = 0.2305\nsamples = 7\nvalue = [[7, 2]\n[2, 7]\n[9, 0]]"] ;
481 -> 482 ;
483 [label="gini = 0.0\nsamples = 5\nvalue = [[7, 0]\n[0, 7]\n[7, 0]]"] ;
482 -> 483 ;
484 [label="gini = 0.0\nsamples = 2\nvalue = [[0, 2]\n[2, 0]\n[2, 0]]"] ;
482 -> 484 ;
485 [label="gini = 0.0\nsamples = 4\nvalue = [[0, 6]\n[6, 0]\n[6, 0]]"] ;
481 -> 485 ;
486 [label="X[4866] <= 0.0042\ngini = 0.28\nsamples = 8\nvalue = [[3, 7]\n[7, 3]\n[10, 0]]"] ;
472 -> 486 ;
487 [label="X[928] <= 0.0018\ngini = 0.1458\nsamples = 6\nvalue = [[1, 7]\n[7, 1]\n[8, 0]]"] ;
486 -> 487 ;
488 [label="gini = 0.0\nsamples = 1\nvalue = [[1, 0]\n[0, 1]\n[1, 0]]"] ;
487 -> 488 ;
489 [label="gini = 0.0\nsamples = 5\nvalue = [[0, 7]\n[7, 0]\n[7, 0]]"] ;
487 -> 489 ;
490 [label="gini = 0.0\nsamples = 2\nvalue = [[2, 0]\n[0, 2]\n[2, 0]]"] ;
486 -> 490 ;
491 [label="X[1531] <= 0.0023\ngini = 0.2963\nsamples = 5\nvalue = [[3, 6]\n[6, 3]\n[9, 0]]"] ;
471 -> 491 ;
492 [label="gini = 0.0\nsamples = 3\nvalue = [[0, 6]\n[6, 0]\n[6, 0]]"] ;
491 -> 492 ;
493 [label="gini = 0.0\nsamples = 2\nvalue = [[3, 0]\n[0, 3]\n[3, 0]]"] ;
491 -> 493 ;
494 [label="gini = 0.0\nsamples = 3\nvalue = [[0, 4]\n[4, 0]\n[4, 0]]"] ;
470 -> 494 ;
495 [label="X[256] <= 0.0007\ngini = 0.2367\nsamples = 18\nvalue = [[6, 20]\n[20, 6]\n[26, 0]]"] ;
391 -> 495 ;
496 [label="X[3541] <= 0.0052\ngini = 0.1512\nsamples = 15\nvalue = [[3, 20]\n[20, 3]\n[23, 0]]"] ;
495 -> 496 ;
497 [label="X[4653] <= 0.0042\ngini = 0.0605\nsamples = 14\nvalue = [[1, 20]\n[20, 1]\n[21, 0]]"] ;
496 -> 497 ;
498 [label="gini = 0.0\nsamples = 13\nvalue = [[0, 20]\n[20, 0]\n[20, 0]]"] ;
497 -> 498 ;
499 [label="gini = 0.0\nsamples = 1\nvalue = [[1, 0]\n[0, 1]\n[1, 0]]"] ;
497 -> 499 ;
500 [label="gini = 0.0\nsamples = 1\nvalue = [[2, 0]\n[0, 2]\n[2, 0]]"] ;
496 -> 500 ;
501 [label="gini = 0.0\nsamples = 3\nvalue = [[3, 0]\n[0, 3]\n[3, 0]]"] ;
495 -> 501 ;
502 [label="X[2688] <= 0.0023\ngini = 0.2873\nsamples = 22\nvalue = [[11, 24]\n[24, 11]\n[35, 0]]"] ;
390 -> 502 ;
503 [label="X[3662] <= 0.004\ngini = 0.1059\nsamples = 14\nvalue = [[2, 21]\n[21, 2]\n[23, 0]]"] ;
502 -> 503 ;
504 [label="gini = 0.0\nsamples = 11\nvalue = [[0, 20]\n[20, 0]\n[20, 0]]"] ;
503 -> 504 ;
505 [label="X[3149] <= 0.0036\ngini = 0.2963\nsamples = 3\nvalue = [[2, 1]\n[1, 2]\n[3, 0]]"] ;
503 -> 505 ;
506 [label="gini = 0.0\nsamples = 2\nvalue = [[2, 0]\n[0, 2]\n[2, 0]]"] ;
505 -> 506 ;
507 [label="gini = 0.0\nsamples = 1\nvalue = [[0, 1]\n[1, 0]\n[1, 0]]"] ;
505 -> 507 ;
508 [label="X[1493] <= 0.0011\ngini = 0.25\nsamples = 8\nvalue = [[9, 3]\n[3, 9]\n[12, 0]]"] ;
502 -> 508 ;
509 [label="X[3887] <= 0.0018\ngini = 0.12\nsamples = 6\nvalue = [[9, 1]\n[1, 9]\n[10, 0]]"] ;
508 -> 509 ;
510 [label="gini = 0.0\nsamples = 5\nvalue = [[9, 0]\n[0, 9]\n[9, 0]]"] ;
509 -> 510 ;
511 [label="gini = 0.0\nsamples = 1\nvalue = [[0, 1]\n[1, 0]\n[1, 0]]"] ;
509 -> 511 ;
512 [label="gini = 0.0\nsamples = 2\nvalue = [[0, 2]\n[2, 0]\n[2, 0]]"] ;
508 -> 512 ;
513 [label="X[2300] <= 0.0057\ngini = 0.1956\nsamples = 17\nvalue = [[5, 23]\n[23, 5]\n[28, 0]]"] ;
389 -> 513 ;
514 [label="X[1047] <= 0.0132\ngini = 0.0981\nsamples = 14\nvalue = [[2, 23]\n[23, 2]\n[25, 0]]"] ;
513 -> 514 ;
515 [label="gini = 0.0\nsamples = 13\nvalue = [[0, 23]\n[23, 0]\n[23, 0]]"] ;
514 -> 515 ;
516 [label="gini = 0.0\nsamples = 1\nvalue = [[2, 0]\n[0, 2]\n[2, 0]]"] ;
514 -> 516 ;
517 [label="gini = 0.0\nsamples = 3\nvalue = [[3, 0]\n[0, 3]\n[3, 0]]"] ;
513 -> 517 ;
518 [label="X[1294] <= 0.0041\ngini = 0.25\nsamples = 61\nvalue = [[23, 69]\n[69, 23]\n[92, 0]]"] ;
2 -> 518 ;
519 [label="X[2218] <= 0.0199\ngini = 0.1944\nsamples = 53\nvalue = [[14, 65]\n[65, 14]\n[79, 0]]"] ;
518 -> 519 ;
520 [label="X[3168] <= 0.0101\ngini = 0.1247\nsamples = 43\nvalue = [[7, 60]\n[60, 7]\n[67, 0]]"] ;
519 -> 520 ;
521 [label="X[2985] <= 0.0075\ngini = 0.0793\nsamples = 39\nvalue = [[4, 59]\n[59, 4]\n[63, 0]]"] ;
520 -> 521 ;
522 [label="X[1116] <= 0.0098\ngini = 0.0423\nsamples = 37\nvalue = [[2, 59]\n[59, 2]\n[61, 0]]"] ;
521 -> 522 ;
523 [label="gini = 0.0\nsamples = 32\nvalue = [[0, 56]\n[56, 0]\n[56, 0]]"] ;
522 -> 523 ;
524 [label="X[1211] <= 0.0011\ngini = 0.32\nsamples = 5\nvalue = [[2, 3]\n[3, 2]\n[5, 0]]"] ;
522 -> 524 ;
525 [label="gini = 0.0\nsamples = 2\nvalue = [[2, 0]\n[0, 2]\n[2, 0]]"] ;
524 -> 525 ;
526 [label="gini = 0.0\nsamples = 3\nvalue = [[0, 3]\n[3, 0]\n[3, 0]]"] ;
524 -> 526 ;
527 [label="gini = 0.0\nsamples = 2\nvalue = [[2, 0]\n[0, 2]\n[2, 0]]"] ;
521 -> 527 ;
528 [label="X[2260] <= 0.0022\ngini = 0.25\nsamples = 4\nvalue = [[3, 1]\n[1, 3]\n[4, 0]]"] ;
520 -> 528 ;
529 [label="gini = 0.0\nsamples = 1\nvalue = [[0, 1]\n[1, 0]\n[1, 0]]"] ;
528 -> 529 ;
530 [label="gini = 0.0\nsamples = 3\nvalue = [[3, 0]\n[0, 3]\n[3, 0]]"] ;
528 -> 530 ;
531 [label="X[247] <= 0.0019\ngini = 0.3241\nsamples = 10\nvalue = [[7, 5]\n[5, 7]\n[12, 0]]"] ;
519 -> 531 ;
532 [label="gini = 0.0\nsamples = 6\nvalue = [[6, 0]\n[0, 6]\n[6, 0]]"] ;
531 -> 532 ;
533 [label="X[3895] <= 0.0121\ngini = 0.1852\nsamples = 4\nvalue = [[1, 5]\n[5, 1]\n[6, 0]]"] ;
531 -> 533 ;
534 [label="gini = 0.0\nsamples = 3\nvalue = [[0, 5]\n[5, 0]\n[5, 0]]"] ;
533 -> 534 ;
535 [label="gini = 0.0\nsamples = 1\nvalue = [[1, 0]\n[0, 1]\n[1, 0]]"] ;
533 -> 535 ;
536 [label="X[814] <= 0.0312\ngini = 0.284\nsamples = 8\nvalue = [[9, 4]\n[4, 9]\n[13, 0]]"] ;
518 -> 536 ;
537 [label="X[971] <= 0.0039\ngini = 0.12\nsamples = 7\nvalue = [[9, 1]\n[1, 9]\n[10, 0]]"] ;
536 -> 537 ;
538 [label="gini = 0.0\nsamples = 5\nvalue = [[8, 0]\n[0, 8]\n[8, 0]]"] ;
537 -> 538 ;
539 [label="X[2297] <= 0.0074\ngini = 0.3333\nsamples = 2\nvalue = [[1, 1]\n[1, 1]\n[2, 0]]"] ;
537 -> 539 ;
540 [label="gini = 0.0\nsamples = 1\nvalue = [[0, 1]\n[1, 0]\n[1, 0]]"] ;
539 -> 540 ;
541 [label="gini = 0.0\nsamples = 1\nvalue = [[1, 0]\n[0, 1]\n[1, 0]]"] ;
539 -> 541 ;
542 [label="gini = 0.0\nsamples = 1\nvalue = [[0, 3]\n[3, 0]\n[3, 0]]"] ;
536 -> 542 ;
543 [label="X[4311] <= 0.0011\ngini = 0.3274\nsamples = 21\nvalue = [[23, 7]\n[27, 3]\n[10, 20]]"] ;
1 -> 543 ;
544 [label="X[4914] <= 0.0074\ngini = 0.2561\nsamples = 19\nvalue = [[20, 7]\n[27, 0]\n[7, 20]]"] ;
543 -> 544 ;
545 [label="X[528] <= 0.0067\ngini = 0.1852\nsamples = 16\nvalue = [[20, 4]\n[24, 0]\n[4, 20]]"] ;
544 -> 545 ;
546 [label="X[4908] <= 0.0307\ngini = 0.1102\nsamples = 14\nvalue = [[20, 2]\n[22, 0]\n[2, 20]]"] ;
545 -> 546 ;
547 [label="gini = 0.0\nsamples = 13\nvalue = [[20, 0]\n[20, 0]\n[0, 20]]"] ;
546 -> 547 ;
548 [label="gini = 0.0\nsamples = 1\nvalue = [[0, 2]\n[2, 0]\n[2, 0]]"] ;
546 -> 548 ;
549 [label="gini = 0.0\nsamples = 2\nvalue = [[0, 2]\n[2, 0]\n[2, 0]]"] ;
545 -> 549 ;
550 [label="gini = 0.0\nsamples = 3\nvalue = [[0, 3]\n[3, 0]\n[3, 0]]"] ;
544 -> 550 ;
551 [label="gini = 0.0\nsamples = 2\nvalue = [[3, 0]\n[0, 3]\n[3, 0]]"] ;
543 -> 551 ;
552 [label="X[4306] <= 0.0028\ngini = 0.0759\nsamples = 20\nvalue = [[31, 2]\n[2, 31]\n[33, 0]]"] ;
0 -> 552 [labeldistance=2.5, labelangle=-45, headlabel="False"] ;
553 [label="gini = 0.0\nsamples = 17\nvalue = [[30, 0]\n[0, 30]\n[30, 0]]"] ;
552 -> 553 ;
554 [label="X[3940] <= 0.0018\ngini = 0.2963\nsamples = 3\nvalue = [[1, 2]\n[2, 1]\n[3, 0]]"] ;
552 -> 554 ;
555 [label="gini = 0.0\nsamples = 2\nvalue = [[0, 2]\n[2, 0]\n[2, 0]]"] ;
554 -> 555 ;
556 [label="gini = 0.0\nsamples = 1\nvalue = [[1, 0]\n[0, 1]\n[1, 0]]"] ;
554 -> 556 ;
}